digraph Tree {
node [shape=box, style="filled, rounded", color="black", fontname="helvetica"] ;
edge [fontname="helvetica"] ;
0 [label="flipper_length_mm <= 206.5\nentropy = 1.515\nsamples = 342\nvalue = [151, 68, 123]", fillcolor="#fcefe6"] ;
1 [label="bill_length_mm <= 43.35\nentropy = 0.917\nsamples = 213\nvalue = [149, 63, 1]", fillcolor="#f0b78d"] ;
0 -> 1 [labeldistance=2.5, labelangle=45, headlabel="True"] ;
2 [label="bill_length_mm <= 42.35\nentropy = 0.211\nsamples = 150\nvalue = [145, 5, 0]", fillcolor="#e68540"] ;
1 -> 2 ;
3 [label="bill_depth_mm <= 16.65\nentropy = 0.062\nsamples = 139\nvalue = [138, 1, 0]", fillcolor="#e5823a"] ;
2 -> 3 ;
4 [label="bill_length_mm <= 39.5\nentropy = 0.439\nsamples = 11\nvalue = [10, 1, 0]", fillcolor="#e88e4d"] ;
3 -> 4 ;
5 [label="entropy = 0.0\nsamples = 10\nvalue = [10, 0, 0]", fillcolor="#e58139"] ;
4 -> 5 ;
6 [label="entropy = 0.0\nsamples = 1\nvalue = [0, 1, 0]", fillcolor="#39e581"] ;
4 -> 6 ;
7 [label="entropy = 0.0\nsamples = 128\nvalue = [128, 0, 0]", fillcolor="#e58139"] ;
3 -> 7 ;
8 [label="bill_depth_mm <= 17.45\nentropy = 0.946\nsamples = 11\nvalue = [7, 4, 0]", fillcolor="#f4c9aa"] ;
2 -> 8 ;
9 [label="entropy = 0.0\nsamples = 4\nvalue = [0, 4, 0]", fillcolor="#39e581"] ;
8 -> 9 ;
10 [label="entropy = 0.0\nsamples = 7\nvalue = [7, 0, 0]", fillcolor="#e58139"] ;
8 -> 10 ;
11 [label="body_mass_g <= 4125.0\nentropy = 0.457\nsamples = 63\nvalue = [4, 58, 1]", fillcolor="#4ae78c"] ;
1 -> 11 ;
12 [label="entropy = 0.0\nsamples = 51\nvalue = [0, 51, 0]", fillcolor="#39e581"] ;
11 -> 12 ;
13 [label="bill_length_mm <= 48.8\nentropy = 1.281\nsamples = 12\nvalue = [4, 7, 1]", fillcolor="#b5f5d0"] ;
11 -> 13 ;
14 [label="bill_length_mm <= 47.2\nentropy = 1.252\nsamples = 6\nvalue = [4, 1, 1]", fillcolor="#efb388"] ;
13 -> 14 ;
15 [label="entropy = 0.722\nsamples = 5\nvalue = [4, 1, 0]", fillcolor="#eca06a"] ;
14 -> 15 ;
16 [label="entropy = 0.0\nsamples = 1\nvalue = [0, 0, 1]", fillcolor="#8139e5"] ;
14 -> 16 ;
17 [label="entropy = 0.0\nsamples = 6\nvalue = [0, 6, 0]", fillcolor="#39e581"] ;
13 -> 17 ;
18 [label="bill_depth_mm <= 17.65\nentropy = 0.351\nsamples = 129\nvalue = [2, 5, 122]", fillcolor="#8844e6"] ;
0 -> 18 [labeldistance=2.5, labelangle=-45, headlabel="False"] ;
19 [label="entropy = 0.0\nsamples = 122\nvalue = [0, 0, 122]", fillcolor="#8139e5"] ;
18 -> 19 ;
20 [label="bill_length_mm <= 46.55\nentropy = 0.863\nsamples = 7\nvalue = [2, 5, 0]", fillcolor="#88efb3"] ;
18 -> 20 ;
21 [label="entropy = 0.0\nsamples = 2\nvalue = [2, 0, 0]", fillcolor="#e58139"] ;
20 -> 21 ;
22 [label="entropy = 0.0\nsamples = 5\nvalue = [0, 5, 0]", fillcolor="#39e581"] ;
20 -> 22 ;
}